<?xml version="1.0"?>
<opencv_storage>
<my_svm type_id="opencv-ml-svm">
  <svm_type>C_SVC</svm_type>
  <kernel><type>RBF</type>
    <gamma>3.3750000000000002e-002</gamma></kernel>
  <C>6.2500000000000000e+001</C>
  <term_criteria><epsilon>1.1920928955078125e-007</epsilon>
    <iterations>1000</iterations></term_criteria>
  <var_all>7</var_all>
  <var_count>7</var_count>
  <class_count>2</class_count>
  <class_labels type_id="opencv-matrix">
    <rows>1</rows>
    <cols>2</cols>
    <dt>i</dt>
    <data>
      0 1</data></class_labels>
  <sv_total>65</sv_total>
  <support_vectors>
    <_>
      95. 42. 24. 29. 4.42105263e-001 2.52631575e-001 3.05263162e-001</_>
    <_>
      113. 60. 18. 22. 6.00000024e-001 1.80000007e-001 2.19999999e-001</_>
    <_>
      52. 20. 21. 11. 3.84615391e-001 4.03846145e-001 2.11538464e-001</_>
    <_>
      189. 31. 24. 45. 3.10000002e-001 2.39999995e-001 4.49999988e-001</_>
    <_>
      136. 37. 26. 37. 3.70000005e-001 2.59999990e-001 3.70000005e-001</_>
    <_>
      173. 35. 32. 33. 3.49999994e-001 3.19999993e-001 3.30000013e-001</_>
    <_>
      143. 31. 40. 29. 3.10000002e-001 4.00000006e-001 2.89999992e-001</_>
    <_>
      200. 45. 33. 22. 4.49999988e-001 3.30000013e-001 2.19999999e-001</_>
    <_>
      106. 41. 28. 31. 4.09999996e-001 2.80000001e-001 3.10000002e-001</_>
    <_>
      128. 51. 21. 28. 5.09999990e-001 2.09999993e-001 2.80000001e-001</_>
    <_>
      131. 39. 20. 41. 3.89999986e-001 2.00000003e-001 4.09999996e-001</_>
    <_>
      124. 38. 27. 35. 3.79999995e-001 2.70000011e-001 3.49999994e-001</_>
    <_>
      166. 41. 17. 42. 4.09999996e-001 1.70000002e-001 4.19999987e-001</_>
    <_>
      159. 40. 26. 34. 4.00000006e-001 2.59999990e-001 3.40000004e-001</_>
    <_>
      155. 35. 28. 37. 3.49999994e-001 2.80000001e-001 3.70000005e-001</_>
    <_>
      164. 44. 20. 36. 4.39999998e-001 2.00000003e-001 3.60000014e-001</_>
    <_>
      137. 46. 24. 30. 4.60000008e-001 2.39999995e-001 3.00000012e-001</_>
    <_>
      138. 49. 23. 28. 4.90000010e-001 2.30000004e-001 2.80000001e-001</_>
    <_>
      143. 39. 29. 32. 3.89999986e-001 2.89999992e-001 3.19999993e-001</_>
    <_>
      62. 27. 17. 18. 4.35483873e-001 2.74193555e-001 2.90322572e-001</_>
    <_>
      114. 43. 35. 22. 4.30000007e-001 3.49999994e-001 2.19999999e-001</_>
    <_>
      62. 27. 17. 18. 4.35483873e-001 2.74193555e-001 2.90322572e-001</_>
    <_>
      149. 53. 21. 26. 5.29999971e-001 2.09999993e-001 2.59999990e-001</_>
    <_>
      103. 29. 39. 32. 2.89999992e-001 3.89999986e-001 3.19999993e-001</_>
    <_>
      187. 31. 36. 33. 3.10000002e-001 3.60000014e-001 3.30000013e-001</_>
    <_>
      101. 57. 26. 17. 5.69999993e-001 2.59999990e-001 1.70000002e-001</_>
    <_>
      126. 46. 27. 27. 4.60000008e-001 2.70000011e-001 2.70000011e-001</_>
    <_>
      153. 45. 22. 33. 4.49999988e-001 2.19999999e-001 3.30000013e-001</_>
    <_>
      118. 35. 27. 38. 3.49999994e-001 2.70000011e-001 3.79999995e-001</_>
    <_>
      60. 26. 21. 13. 4.33333337e-001 3.49999994e-001 2.16666669e-001</_>
    <_>
      182. 35. 24. 41. 3.49999994e-001 2.39999995e-001 4.09999996e-001</_>
    <_>
      74. 25. 33. 16. 3.37837845e-001 4.45945948e-001 2.16216221e-001</_>
    <_>
      190. 35. 28. 37. 3.49999994e-001 2.80000001e-001 3.70000005e-001</_>
    <_>
      157. 49. 22. 29. 4.90000010e-001 2.19999999e-001 2.89999992e-001</_>
    <_>
      38. 16. 8. 14. 4.21052635e-001 2.10526317e-001 3.68421048e-001</_>
    <_>
      30. 16. 8. 6. 5.33333361e-001 2.66666681e-001 2.00000003e-001</_>
    <_>
      50. 24. 10. 16. 4.79999989e-001 2.00000003e-001 3.19999993e-001</_>
    <_>
      41. 16. 11. 14. 3.90243888e-001 2.68292695e-001 3.41463417e-001</_>
    <_>
      53. 18. 21. 14. 3.39622647e-001 3.96226406e-001 2.64150947e-001</_>
    <_>
      30. 10. 11. 9. 3.33333343e-001 3.66666675e-001 3.00000012e-001</_>
    <_>
      57. 24. 20. 13. 4.21052635e-001 3.50877196e-001 2.28070170e-001</_>
    <_>
      63. 27. 18. 18. 4.28571433e-001 2.85714298e-001 2.85714298e-001</_>
    <_>
      46. 27. 10. 9. 5.86956501e-001 2.17391297e-001 1.95652172e-001</_>
    <_>
      63. 26. 23. 14. 4.12698418e-001 3.65079373e-001 2.22222224e-001</_>
    <_>
      42. 14. 17. 11. 3.33333343e-001 4.04761910e-001 2.61904776e-001</_>
    <_>
      57. 26. 12. 19. 4.56140339e-001 2.10526317e-001 3.33333343e-001</_>
    <_>
      51. 30. 10. 11. 5.88235319e-001 1.96078435e-001 2.15686277e-001</_>
    <_>
      72. 34. 23. 15. 4.72222209e-001 3.19444448e-001 2.08333328e-001</_>
    <_>
      45. 23. 12. 10. 5.11111140e-001 2.66666681e-001 2.22222224e-001</_>
    <_>
      61. 26. 18. 17. 4.26229507e-001 2.95081973e-001 2.78688520e-001</_>
    <_>
      49. 16. 21. 12. 3.26530606e-001 4.28571433e-001 2.44897962e-001</_>
    <_>
      48. 21. 11. 16. 4.37500000e-001 2.29166672e-001 3.33333343e-001</_>
    <_>
      46. 17. 20. 9. 3.69565219e-001 4.34782594e-001 1.95652172e-001</_>
    <_>
      59. 25. 17. 17. 4.23728824e-001 2.88135588e-001 2.88135588e-001</_>
    <_>
      39. 19. 10. 10. 4.87179488e-001 2.56410271e-001 2.56410271e-001</_>
    <_>
      42. 23. 7. 12. 5.47619045e-001 1.66666672e-001 2.85714298e-001</_>
    <_>
      39. 12. 21. 6. 3.07692319e-001 5.38461566e-001 1.53846160e-001</_>
    <_>
      52. 21. 20. 11. 4.03846145e-001 3.84615391e-001 2.11538464e-001</_>
    <_>
      61. 22. 23. 16. 3.60655725e-001 3.77049178e-001 2.62295067e-001</_>
    <_>
      60. 26. 20. 14. 4.33333337e-001 3.33333343e-001 2.33333334e-001</_>
    <_>
      36. 16. 13. 7. 4.44444448e-001 3.61111104e-001 1.94444448e-001</_>
    <_>
      44. 18. 12. 14. 4.09090906e-001 2.72727281e-001 3.18181813e-001</_>
    <_>
      41. 18. 18. 5. 4.39024389e-001 4.39024389e-001 1.21951222e-001</_>
    <_>
      61. 28. 16. 17. 4.59016383e-001 2.62295067e-001 2.78688520e-001</_>
    <_>
      36. 12. 17. 7. 3.33333343e-001 4.72222209e-001 1.94444448e-001</_></support_vectors>
  <decision_functions>
    <_>
      <sv_count>65</sv_count>
      <rho>-2.5741208834801821e-001</rho>
      <alpha>
        7.3652936650636602e-001 7.4231234652308498e-001
        2.2846510492762540e+001 6.7356307744246258e-001
        6.5212242094014672e-001 7.4158432714675393e-001
        7.4149035554424159e-001 7.4253026236504160e-001
        7.3522764756977321e-001 6.5181878068606214e-001
        6.9318594768658348e-001 6.1967102124387619e-001
        6.5700665010452319e-001 5.4850437802213592e-001
        6.4931231733048267e-001 5.9986220717948036e-001
        4.2483660115514754e-001 4.6004435894519569e-001
        6.9433778166160964e-001 6.2500000000000000e+001
        7.4152140515865828e-001 1.8313483299383717e+000
        7.0389657401399497e-001 7.4246279219310440e-001
        7.2273561922831719e-001 7.4242179629693139e-001
        6.5950592776139549e-001 5.6841514763213286e-001
        6.4184269876867095e-001 1.2640847794451108e+001
        6.7185558750153174e-001 7.4562722684537996e-001
        6.6991394943202076e-001 5.8031866324872883e-001
        -8.3347737394761723e-001 -1.0032464897934417e+000
        -4.3269517506148569e-001 -1.9318186052124944e-001
        -4.1051461463970034e+000 -1.0125354719393840e+000
        -1.1494071251659999e+000 -3.8411355026057393e+001
        -6.8822220336793338e-001 -1.5656087292836589e+000
        -3.7481488413414993e-001 -1.0817126200380616e+000
        -8.8930190616119875e-001 -1.1685197172750104e+000
        -1.4476392088187481e-001 -5.4081187932911483e+000
        -2.8813987579498903e+000 -4.4258597822515611e-001
        -4.1666598725083065e-001 -3.2417839746291173e+000
        -2.8195040932069765e-001 -7.8498134648906059e-001
        -7.7092674520605986e-001 -1.9409832051517927e+001
        -5.1873745379968383e-001 -6.9138737701767434e+000
        -5.3680696980460341e-001 -3.8968408806612292e-001
        -7.7506118761827814e-001 -2.3431072003412087e+001
        -5.1569568650295061e-001</alpha>
      <index>
        0 1 2 3 4 5 6 7 8 9 10 11 12 13 14 15 16 17 18 19 20 21 22 23 24
        25 26 27 28 29 30 31 32 33 34 35 36 37 38 39 40 41 42 43 44 45
        46 47 48 49 50 51 52 53 54 55 56 57 58 59 60 61 62 63 64</index></_></decision_functions></my_svm>
</opencv_storage>
